digraph Tree {
node [shape=box] ;
0 [label="X[0] <= 5.55\nentropy = 1.5849\nsamples = 149\nvalue = [49, 50, 50]"] ;
1 [label="X[1] <= 2.8\nentropy = 0.8296\nsamples = 57\nvalue = [45, 11, 1]"] ;
0 -> 1 [labeldistance=2.5, labelangle=45, headlabel="True"] ;
2 [label="X[2] <= 4.45\nentropy = 0.4395\nsamples = 11\nvalue = [0, 10, 1]"] ;
1 -> 2 ;
3 [label="entropy = 0.0\nsamples = 10\nvalue = [0, 10, 0]"] ;
2 -> 3 ;
4 [label="entropy = 0.0\nsamples = 1\nvalue = [0, 0, 1]"] ;
2 -> 4 ;
5 [label="X[2] <= 3.2\nentropy = 0.1511\nsamples = 46\nvalue = [45, 1, 0]"] ;
1 -> 5 ;
6 [label="entropy = 0.0\nsamples = 45\nvalue = [45, 0, 0]"] ;
5 -> 6 ;
7 [label="entropy = 0.0\nsamples = 1\nvalue = [0, 1, 0]"] ;
5 -> 7 ;
8 [label="X[2] <= 4.75\nentropy = 1.2056\nsamples = 92\nvalue = [4, 39, 49]"] ;
0 -> 8 [labeldistance=2.5, labelangle=-45, headlabel="False"] ;
9 [label="X[1] <= 3.6\nentropy = 0.4942\nsamples = 37\nvalue = [4, 33, 0]"] ;
8 -> 9 ;
10 [label="X[0] <= 5.75\nentropy = 0.1914\nsamples = 34\nvalue = [1, 33, 0]"] ;
9 -> 10 ;
11 [label="X[2] <= 2.3\nentropy = 0.4395\nsamples = 11\nvalue = [1, 10, 0]"] ;
10 -> 11 ;
12 [label="entropy = 0.0\nsamples = 1\nvalue = [1, 0, 0]"] ;
11 -> 12 ;
13 [label="entropy = 0.0\nsamples = 10\nvalue = [0, 10, 0]"] ;
11 -> 13 ;
14 [label="entropy = 0.0\nsamples = 23\nvalue = [0, 23, 0]"] ;
10 -> 14 ;
15 [label="entropy = 0.0\nsamples = 3\nvalue = [3, 0, 0]"] ;
9 -> 15 ;
16 [label="X[2] <= 5.15\nentropy = 0.4972\nsamples = 55\nvalue = [0, 6, 49]"] ;
8 -> 16 ;
17 [label="X[3] <= 1.75\nentropy = 0.8631\nsamples = 21\nvalue = [0, 6, 15]"] ;
16 -> 17 ;
18 [label="X[0] <= 6.5\nentropy = 0.8631\nsamples = 7\nvalue = [0, 5, 2]"] ;
17 -> 18 ;
19 [label="entropy = 1.0\nsamples = 4\nvalue = [0, 2, 2]"] ;
18 -> 19 ;
20 [label="entropy = 0.0\nsamples = 3\nvalue = [0, 3, 0]"] ;
18 -> 20 ;
21 [label="X[1] <= 3.15\nentropy = 0.3712\nsamples = 14\nvalue = [0, 1, 13]"] ;
17 -> 21 ;
22 [label="entropy = 0.0\nsamples = 12\nvalue = [0, 0, 12]"] ;
21 -> 22 ;
23 [label="entropy = 1.0\nsamples = 2\nvalue = [0, 1, 1]"] ;
21 -> 23 ;
24 [label="entropy = 0.0\nsamples = 34\nvalue = [0, 0, 34]"] ;
16 -> 24 ;
}